{
    "layer1": {
        "weights": [
            [
                0.21178878843784332,
                -0.07093985378742218,
                -0.103578120470047,
                -0.05281315743923187,
                -0.2849089801311493,
                -0.22891758382320404,
                -0.2413712441921234,
                0.36946409940719604,
                -0.2471880167722702,
                0.1637902557849884,
                -0.29131606221199036,
                0.24321722984313965,
                0.08461562544107437,
                0.23610521852970123,
                -0.05629343166947365,
                0.03647569566965103,
                -0.09450247883796692,
                0.2670815587043762,
                0.1860779970884323,
                -0.07570159435272217,
                0.17589813470840454,
                0.01591302640736103,
                0.18559794127941132,
                0.08518031984567642,
                -0.09984908998012543,
                -0.20427724719047546,
                -0.0559251643717289,
                -0.2576582133769989,
                0.27418702840805054,
                0.16630831360816956,
                -0.13667617738246918,
                -0.040925681591033936,
                0.1775803565979004,
                -0.12532004714012146,
                0.08018068224191666,
                -0.26698851585388184,
                -0.12280227243900299,
                0.2965717613697052,
                0.33272242546081543,
                0.241890549659729,
                0.24854859709739685,
                0.19694045186042786,
                0.19468598067760468,
                0.33015790581703186,
                0.2642582952976227,
                0.08463547378778458,
                0.2105226069688797,
                0.22308304905891418,
                -0.2168475091457367,
                -0.03412845730781555,
                -0.02349671721458435,
                -0.2704043984413147,
                0.13408514857292175,
                0.2691061198711395,
                0.2633512616157532,
                0.38619980216026306,
                -0.15430483222007751,
                0.11772720515727997,
                -0.10450343787670135,
                0.24771450459957123,
                0.1733771562576294,
                -0.0069322227500379086,
                -0.1270001381635666,
                0.08273515105247498
            ],
            [
                0.21993505954742432,
                0.1832496076822281,
                0.3755786418914795,
                -0.039352599531412125,
                -0.0008772909641265869,
                -0.020421922206878662,
                -0.16114623844623566,
                0.1408201903104782,
                0.28093138337135315,
                0.2492700219154358,
                -0.19449517130851746,
                -0.28247466683387756,
                0.022175073623657227,
                -0.13420873880386353,
                0.37070536613464355,
                0.3064468204975128,
                0.028826076537370682,
                0.2923961877822876,
                0.113723523914814,
                0.3030059337615967,
                0.31833624839782715,
                0.17684447765350342,
                0.03369615972042084,
                0.1334880292415619,
                -0.18375372886657715,
                -0.18349987268447876,
                0.3304515480995178,
                0.07346975803375244,
                0.18780243396759033,
                0.3469066619873047,
                0.3429596424102783,
                -0.001247495412826538,
                0.30925464630126953,
                -0.03266599774360657,
                0.1497020274400711,
                -0.04420977830886841,
                -0.29095908999443054,
                0.23638741672039032,
                0.23037517070770264,
                0.2138066291809082,
                -0.12271197140216827,
                0.0601712204515934,
                -0.04153567925095558,
                0.08790646493434906,
                -0.22013364732265472,
                -0.1090138852596283,
                -0.12920451164245605,
                -0.09580345451831818,
                0.00857358518987894,
                -0.07174932956695557,
                -0.05194877088069916,
                -0.1511288434267044,
                -0.03153040260076523,
                -0.04795408621430397,
                0.1536034643650055,
                0.02757306583225727,
                0.31947973370552063,
                0.3220026195049286,
                -0.034638166427612305,
                -0.10484953224658966,
                0.159550279378891,
                0.32639601826667786,
                0.396511435508728,
                0.04536385089159012
            ],
            [
                0.11423216015100479,
                0.2908686399459839,
                0.019381292164325714,
                -0.24973680078983307,
                -0.1971457153558731,
                -4.744529724121094e-05,
                0.0994405746459961,
                0.23546704649925232,
                0.23238711059093475,
                0.020485101267695427,
                -0.12989754974842072,
                -0.21059873700141907,
                0.20836485922336578,
                0.21568931639194489,
                -0.0911327376961708,
                0.370065838098526,
                -0.0036337939091026783,
                0.06947014480829239,
                0.28827473521232605,
                -0.12005246430635452,
                -0.15966206789016724,
                -0.12654651701450348,
                -0.0058846487663686275,
                0.2823221981525421,
                -0.12095500528812408,
                -0.13349725306034088,
                0.35223621129989624,
                -0.19830521941184998,
                0.0781690776348114,
                0.2575593888759613,
                0.020144470036029816,
                -0.26477131247520447,
                0.28733813762664795,
                -0.2603146731853485,
                0.048065491020679474,
                -0.09709586203098297,
                -0.2535534203052521,
                0.010610325261950493,
                -0.027154136449098587,
                0.38996121287345886,
                0.16664758324623108,
                0.23514333367347717,
                0.3611471652984619,
                0.01930605247616768,
                -0.08780406415462494,
                0.06475900113582611,
                0.33938854932785034,
                0.340181440114975,
                0.21743439137935638,
                -0.12706278264522552,
                -0.1616639941930771,
                -0.10823020339012146,
                -0.13604582846164703,
                0.14410856366157532,
                0.364122211933136,
                0.2740163505077362,
                0.1849948614835739,
                0.40046775341033936,
                -0.22654271125793457,
                0.10992532223463058,
                0.36599603295326233,
                -0.03744086995720863,
                -0.00985169317573309,
                0.15870235860347748
            ]
        ],
        "biases": [
            -0.04239046201109886,
            0.016811372712254524,
            0.08056159317493439,
            0.3357551097869873,
            0.0,
            0.0,
            -0.02625807374715805,
            0.061988022178411484,
            -0.016958322376012802,
            0.03552282229065895,
            0.0,
            -0.00160602864343673,
            0.07663174718618393,
            0.06445782631635666,
            0.0653153508901596,
            0.049402009695768356,
            -0.024336209520697594,
            0.0414881557226181,
            -0.03858558088541031,
            0.045476946979761124,
            0.06636632978916168,
            -0.022112224251031876,
            0.10049250721931458,
            -0.032582804560661316,
            0.0,
            0.0,
            0.009617287665605545,
            -0.05751073732972145,
            0.07604970782995224,
            0.07920365780591965,
            0.09648329764604568,
            0.0,
            0.03961987420916557,
            0.0,
            -0.06449329107999802,
            0.0,
            0.0,
            0.06683430820703506,
            0.03465697541832924,
            0.061428800225257874,
            -0.04933951050043106,
            -0.006417757831513882,
            0.06328999996185303,
            0.076764777302742,
            -0.012723234482109547,
            -0.06886524707078934,
            0.07496295869350433,
            0.036523573100566864,
            -0.05126490816473961,
            0.0,
            0.0,
            0.0,
            0.15528608858585358,
            0.027207080274820328,
            0.05735109746456146,
            0.08205495029687881,
            0.0762791633605957,
            0.05865541845560074,
            0.0,
            0.09001260995864868,
            0.0514516718685627,
            0.06404208391904831,
            0.08628188818693161,
            -0.0293487086892128
        ]
    },
    "layer2": {
        "weights": [
            [
                0.015556572936475277,
                -0.09686754643917084,
                0.11002792418003082,
                -0.21167826652526855,
                -0.25718188285827637,
                0.048915665596723557,
                -0.206041157245636,
                -0.33396416902542114,
                -0.07791464030742645,
                -0.18410032987594604,
                0.10805860161781311,
                0.06781782954931259,
                0.05643288418650627,
                0.035300083458423615,
                0.2100159227848053,
                -0.03494672104716301,
                0.09559933841228485,
                -0.14823117852210999,
                -0.06187722459435463,
                -0.09391126781702042,
                -0.004959645215421915,
                0.1505843997001648,
                0.03285990282893181,
                -0.07022466510534286,
                -0.011820508167147636,
                0.2577686607837677,
                0.28091511130332947,
                0.03867875412106514,
                -0.0784226655960083,
                -0.09348518401384354,
                0.07933267205953598,
                0.1263636350631714
            ],
            [
                0.037330109626054764,
                -0.08496075868606567,
                0.16644158959388733,
                -0.23862916231155396,
                0.17835895717144012,
                0.10815563797950745,
                -0.010578334331512451,
                -0.3821884095668793,
                0.08406521379947662,
                0.07748711109161377,
                -0.1252843290567398,
                0.2321709394454956,
                0.23863375186920166,
                0.19005025923252106,
                -0.20454539358615875,
                -0.3609233796596527,
                -0.0848650112748146,
                -0.1305307149887085,
                -0.0744529590010643,
                0.08367980271577835,
                -0.19864913821220398,
                0.22253702580928802,
                0.04094821214675903,
                -0.18313416838645935,
                -0.25485605001449585,
                0.05550625920295715,
                0.08639747649431229,
                0.134521484375,
                0.16162919998168945,
                -0.047490548342466354,
                -0.23941326141357422,
                0.16414998471736908
            ],
            [
                0.1802564263343811,
                0.2803588807582855,
                -0.08546004444360733,
                0.22163552045822144,
                -0.22470521926879883,
                0.21571578085422516,
                -0.024041056632995605,
                -0.06493093073368073,
                -0.006289242301136255,
                -0.2425493597984314,
                0.0012893050443381071,
                0.17263063788414001,
                0.30990102887153625,
                -0.13209103047847748,
                0.10565146058797836,
                0.15025685727596283,
                0.11429864168167114,
                0.19523994624614716,
                -0.0855247974395752,
                0.0741385668516159,
                -0.13358719646930695,
                0.23928382992744446,
                -0.15033714473247528,
                0.11254411190748215,
                -0.11940298974514008,
                0.10720687359571457,
                0.07210969924926758,
                0.22443798184394836,
                -0.04006671905517578,
                0.11199434101581573,
                -0.09219599515199661,
                -0.15777111053466797
            ],
            [
                -0.5568609833717346,
                -0.523139238357544,
                -0.08187538385391235,
                -0.13789159059524536,
                -0.02874225378036499,
                0.06040668487548828,
                0.029443681240081787,
                0.21628564596176147,
                -0.31280776858329773,
                -0.24495470523834229,
                -0.20650307834148407,
                -0.4190616011619568,
                -0.5748215913772583,
                0.06869067996740341,
                -0.06093090400099754,
                0.4184790551662445,
                -0.12699532508850098,
                -0.5018935203552246,
                -0.3648361265659332,
                0.029848525300621986,
                0.44251763820648193,
                -0.4073084592819214,
                -0.18820521235466003,
                0.24181801080703735,
                -0.20615649223327637,
                -0.49203401803970337,
                -0.4766145348548889,
                -0.5449959635734558,
                0.18216705322265625,
                -0.26001620292663574,
                -0.05393131449818611,
                -0.10204321891069412
            ],
            [
                -0.22129887342453003,
                -0.2099360227584839,
                0.09266901016235352,
                -0.013217270374298096,
                -0.11060136556625366,
                -0.1520235538482666,
                0.21722781658172607,
                0.05633968114852905,
                -0.22194206714630127,
                0.09248268604278564,
                0.044682860374450684,
                0.24806725978851318,
                -0.10351574420928955,
                -0.15082156658172607,
                -0.0774959921836853,
                -0.17159157991409302,
                -0.19127994775772095,
                -0.2352113127708435,
                0.10324752330780029,
                0.21433240175247192,
                -0.243902325630188,
                0.18298602104187012,
                0.15337377786636353,
                -0.19892948865890503,
                -0.17129546403884888,
                0.08404266834259033,
                -0.19364219903945923,
                0.11068427562713623,
                -0.02148979902267456,
                0.13254481554031372,
                -0.17247402667999268,
                -0.08821648359298706
            ],
            [
                0.2203008532524109,
                0.06225430965423584,
                0.13938069343566895,
                0.13710540533065796,
                0.1304086446762085,
                -0.15968739986419678,
                0.10002458095550537,
                0.20420867204666138,
                -0.019809842109680176,
                -0.10803496837615967,
                0.18056899309158325,
                0.06584393978118896,
                -0.1104077696800232,
                -0.18071246147155762,
                0.20899748802185059,
                0.19526588916778564,
                -0.05074673891067505,
                0.0978623628616333,
                0.05046337842941284,
                -0.21805906295776367,
                -0.15022563934326172,
                -0.05041784048080444,
                -0.1659862995147705,
                -0.017048895359039307,
                -0.03933548927307129,
                0.10706108808517456,
                -0.002487778663635254,
                -0.008533358573913574,
                0.03202325105667114,
                -0.11002802848815918,
                -0.040207624435424805,
                -0.07474303245544434
            ],
            [
                -0.20536231994628906,
                0.2829010784626007,
                0.11205419152975082,
                -0.21967017650604248,
                0.1238943561911583,
                0.08116203546524048,
                0.11197549104690552,
                0.36003127694129944,
                -0.15996749699115753,
                0.06878829002380371,
                0.04187356308102608,
                -0.15423212945461273,
                0.014183946885168552,
                0.04974418878555298,
                -0.021437881514430046,
                -0.14518173038959503,
                -0.22191792726516724,
                0.13069522380828857,
                -0.18282143771648407,
                0.13265405595302582,
                0.07537751644849777,
                -0.1061776876449585,
                0.10915640741586685,
                0.10162921994924545,
                0.1617351621389389,
                0.2999103367328644,
                -0.06586732715368271,
                0.15074020624160767,
                -0.09380441904067993,
                0.09186208248138428,
                -0.11908236891031265,
                -0.11333351582288742
            ],
            [
                -0.09061139076948166,
                0.12451954931020737,
                -0.1534726470708847,
                0.18265610933303833,
                0.16021238267421722,
                -0.0831926167011261,
                0.08345061540603638,
                -0.034845899790525436,
                0.3270949423313141,
                -0.1891573667526245,
                0.08946771174669266,
                0.1294560432434082,
                0.22246642410755157,
                -0.16367873549461365,
                -0.15204747021198273,
                0.019269848242402077,
                0.012818032875657082,
                0.17955884337425232,
                0.27812790870666504,
                -0.005107004661113024,
                -0.20391087234020233,
                -0.13030311465263367,
                -0.00023125855659600347,
                0.1499742567539215,
                0.04914304241538048,
                0.12728719413280487,
                -0.1343112289905548,
                0.24443446099758148,
                -0.09506523609161377,
                -0.13685576617717743,
                0.17759929597377777,
                -0.08273463696241379
            ],
            [
                0.2148321121931076,
                -0.07686535269021988,
                -0.1338229924440384,
                -0.14393174648284912,
                0.06683285534381866,
                0.055676404386758804,
                -0.2155599594116211,
                -0.06274210661649704,
                0.15026819705963135,
                0.21061044931411743,
                0.1669287532567978,
                0.2270900011062622,
                -0.06620030105113983,
                0.12187131494283676,
                0.08993583917617798,
                -0.25225746631622314,
                -0.261493980884552,
                0.17968088388442993,
                -0.15649811923503876,
                -0.06206398457288742,
                -0.012142748571932316,
                0.23207306861877441,
                0.0734972134232521,
                -0.02688158117234707,
                0.22241000831127167,
                -0.13722170889377594,
                0.3636617660522461,
                0.22011639177799225,
                -0.09401136636734009,
                0.026988891884684563,
                0.1859978884458542,
                0.15853312611579895
            ],
            [
                -0.10042382776737213,
                0.1947709321975708,
                -0.12354852259159088,
                -0.1690409779548645,
                -0.19095993041992188,
                -0.06269132345914841,
                -0.18833404779434204,
                0.21395355463027954,
                0.08750302344560623,
                0.051124393939971924,
                -0.021637482568621635,
                0.16922013461589813,
                -0.07426638901233673,
                0.22877217829227448,
                -0.24319878220558167,
                0.03438854590058327,
                -0.026382606476545334,
                0.29613664746284485,
                0.1280164122581482,
                0.20655514299869537,
                0.0277632474899292,
                0.11865491420030594,
                -0.2698211371898651,
                0.02666637673974037,
                0.18634693324565887,
                0.278612345457077,
                0.23326216638088226,
                0.3452033996582031,
                0.18114084005355835,
                0.13214582204818726,
                0.14843110740184784,
                -0.07381661981344223
            ],
            [
                -0.19475752115249634,
                -0.019318044185638428,
                0.24820882081985474,
                -0.08426731824874878,
                0.21794235706329346,
                0.24757695198059082,
                0.23743462562561035,
                0.050158679485321045,
                -0.009241878986358643,
                -0.15425246953964233,
                0.027072489261627197,
                -0.23286837339401245,
                0.13782113790512085,
                0.0823250412940979,
                0.00030303001403808594,
                -0.04185909032821655,
                -0.04859662055969238,
                0.09699451923370361,
                -0.17003542184829712,
                0.041104018688201904,
                -0.24945378303527832,
                -0.18430644273757935,
                -0.21545618772506714,
                0.1871369481086731,
                0.22909796237945557,
                -0.0037041306495666504,
                0.1281917691230774,
                -0.028511643409729004,
                -0.24436771869659424,
                0.09851419925689697,
                0.06802290678024292,
                0.07391184568405151
            ],
            [
                -0.03683800995349884,
                0.10463760048151016,
                -0.19968175888061523,
                -0.11642247438430786,
                -0.18600136041641235,
                0.01013475377112627,
                -0.17941975593566895,
                0.378634512424469,
                0.08917470276355743,
                0.171974778175354,
                -0.09520699083805084,
                -0.21482707560062408,
                -0.21988511085510254,
                0.025478780269622803,
                0.19169197976589203,
                0.014219141565263271,
                0.2164749801158905,
                -0.24061335623264313,
                -0.30467578768730164,
                0.20158296823501587,
                -0.08733201771974564,
                0.00039809136069379747,
                0.21721792221069336,
                -0.10801941156387329,
                0.07994818687438965,
                -0.10253269225358963,
                -0.24318651854991913,
                0.04430568963289261,
                0.08988708257675171,
                -0.03989303112030029,
                0.07702066749334335,
                -0.24568282067775726
            ],
            [
                0.2944923937320709,
                0.3252125382423401,
                0.13070836663246155,
                0.09310489892959595,
                -0.08912471681833267,
                -0.2128533124923706,
                -0.1247100830078125,
                0.1668926179409027,
                -0.03931967914104462,
                0.1952810287475586,
                0.02204005792737007,
                0.07793553173542023,
                0.33462128043174744,
                -0.09749484062194824,
                -0.05464443936944008,
                0.2582258880138397,
                -0.014754540286958218,
                0.24458913505077362,
                0.30422618985176086,
                -0.12892919778823853,
                0.02736702561378479,
                0.258251816034317,
                0.002933366457000375,
                -0.16777312755584717,
                0.028595104813575745,
                0.05283122509717941,
                0.04244700074195862,
                0.3409566581249237,
                -0.1190919280052185,
                0.05532671883702278,
                -0.023885808885097504,
                -0.2262483686208725
            ],
            [
                0.31455060839653015,
                0.18526554107666016,
                -0.24751505255699158,
                -0.2002253532409668,
                0.04283565282821655,
                0.009919697418808937,
                -0.23144686222076416,
                -0.026034362614154816,
                0.32366809248924255,
                -0.23994112014770508,
                -0.23565901815891266,
                0.2501223385334015,
                0.057073500007390976,
                0.10011154413223267,
                -0.16633430123329163,
                0.01387415174394846,
                0.11646553874015808,
                0.16625449061393738,
                0.029265331104397774,
                -0.09188653528690338,
                0.06957879662513733,
                0.25506332516670227,
                -0.06430035829544067,
                -0.1547117531299591,
                0.024205707013607025,
                -0.016255944967269897,
                0.163506880402565,
                0.2401915192604065,
                -0.011501312255859375,
                0.031508445739746094,
                -0.15001720190048218,
                -0.2695695459842682
            ],
            [
                0.18830254673957825,
                0.019601866602897644,
                -0.13400009274482727,
                0.082447350025177,
                0.10581433773040771,
                0.12014908343553543,
                -0.21297025680541992,
                0.3753708004951477,
                0.2774422764778137,
                -0.2162017822265625,
                -0.07327568531036377,
                0.30014774203300476,
                0.26621130108833313,
                0.08240020275115967,
                -0.06381306797266006,
                -0.03613939508795738,
                -0.049287497997283936,
                0.12648722529411316,
                0.2785240411758423,
                -0.09329208731651306,
                -0.12105505913496017,
                0.21445490419864655,
                -0.09259260445833206,
                -0.24715277552604675,
                -0.08684730529785156,
                -0.011732139624655247,
                0.22934889793395996,
                0.03522146865725517,
                -0.060067832469940186,
                0.0023082117550075054,
                -0.08872218430042267,
                -0.21030017733573914
            ],
            [
                0.15647149085998535,
                -0.09210138767957687,
                0.04688728228211403,
                -0.1570473313331604,
                -0.05970684811472893,
                -0.2646304965019226,
                -0.004359543323516846,
                -0.29159069061279297,
                0.30918315052986145,
                -0.12615996599197388,
                -0.19020764529705048,
                0.12090060859918594,
                0.2980205714702606,
                -0.24796941876411438,
                -0.038382407277822495,
                -0.20116885006427765,
                -0.13359583914279938,
                -0.054551463574171066,
                0.2837674617767334,
                0.17322249710559845,
                -0.16245579719543457,
                0.1647159308195114,
                -0.08288256078958511,
                0.14867116510868073,
                0.049326200038194656,
                0.08754054456949234,
                0.2556787431240082,
                0.11957309395074844,
                -0.1464056372642517,
                0.16488635540008545,
                0.10349630564451218,
                -0.08669444918632507
            ],
            [
                -0.1385388970375061,
                0.14941082894802094,
                -0.03471911698579788,
                0.1839771270751953,
                -0.19623711705207825,
                -0.001999372849240899,
                -0.1480029821395874,
                0.19829176366329193,
                -0.00403489638119936,
                0.10038745403289795,
                0.08213650435209274,
                -0.13150399923324585,
                -0.21056947112083435,
                0.10512196272611618,
                -0.03976762667298317,
                -0.13415628671646118,
                0.046077728271484375,
                0.08326228708028793,
                0.14047130942344666,
                -0.09862350672483444,
                -0.2109885960817337,
                0.0274996105581522,
                0.18975746631622314,
                0.09859774261713028,
                0.21094298362731934,
                0.07091118395328522,
                -0.19037578999996185,
                -0.011579176411032677,
                -0.14070028066635132,
                0.16562917828559875,
                0.00701152766123414,
                0.030576447024941444
            ],
            [
                0.23462767899036407,
                -0.04727805033326149,
                0.171627476811409,
                -0.17207574844360352,
                -0.06425464898347855,
                0.1905510574579239,
                0.18657231330871582,
                -0.0611419752240181,
                0.13920366764068604,
                -0.018521606922149658,
                -0.05325921252369881,
                0.05474918708205223,
                0.13194429874420166,
                -0.24817220866680145,
                0.1259692758321762,
                -0.08929954469203949,
                -0.22380578517913818,
                0.004187694285064936,
                0.2543317377567291,
                0.16397425532341003,
                0.00604677340015769,
                0.18479613959789276,
                0.04256357252597809,
                0.025495275855064392,
                -0.05404653400182724,
                -0.022186145186424255,
                0.23667016625404358,
                0.06144631654024124,
                -0.12336355447769165,
                -0.15791983902454376,
                -0.14087875187397003,
                0.14002132415771484
            ],
            [
                0.304764062166214,
                0.2718011140823364,
                -0.1793433278799057,
                -0.23191112279891968,
                0.18405526876449585,
                -0.09911464899778366,
                -0.08901691436767578,
                -0.2631927728652954,
                0.048745352774858475,
                -0.03706389665603638,
                0.14845618605613708,
                0.15975676476955414,
                -0.07409193366765976,
                -0.1578759253025055,
                0.03664322942495346,
                0.11812306195497513,
                -0.1902884840965271,
                0.15811380743980408,
                -0.11839763075113297,
                -0.18040354549884796,
                -0.0803598091006279,
                -0.08880658447742462,
                -0.07030826061964035,
                -0.16874663531780243,
                0.05903099104762077,
                -0.016597913578152657,
                0.02162577584385872,
                0.35805124044418335,
                -0.01947808265686035,
                0.048430100083351135,
                0.19750931859016418,
                -0.10970871895551682
            ],
            [
                -0.04391899332404137,
                0.05051089823246002,
                -0.13452300429344177,
                0.11752074956893921,
                -0.13826322555541992,
                0.21069546043872833,
                -0.16406089067459106,
                0.24030153453350067,
                0.21190601587295532,
                0.15096861124038696,
                0.06348133832216263,
                -0.08962258696556091,
                0.13106852769851685,
                0.006253254599869251,
                0.18263843655586243,
                0.26570120453834534,
                0.19888624548912048,
                -0.06006164103746414,
                0.11110419780015945,
                0.02645304426550865,
                0.20641252398490906,
                -0.03639572858810425,
                -0.005477593746036291,
                0.22378508746623993,
                0.016832469031214714,
                0.13955414295196533,
                -0.054007768630981445,
                0.008880638517439365,
                0.13619577884674072,
                0.1708221733570099,
                0.13324026763439178,
                0.01649313047528267
            ],
            [
                -0.028179654851555824,
                -0.03645428642630577,
                -0.17229202389717102,
                0.24621349573135376,
                0.06952822208404541,
                0.0458226315677166,
                0.19760102033615112,
                0.2665640413761139,
                0.04505763202905655,
                -0.15282589197158813,
                0.1703336089849472,
                0.1227438673377037,
                0.29782959818840027,
                0.06573973596096039,
                -0.2577175796031952,
                -0.015586845576763153,
                -0.2604476511478424,
                -0.10410961508750916,
                -0.022557804360985756,
                -0.12086693942546844,
                0.1611929088830948,
                0.020559445023536682,
                -0.22881460189819336,
                0.02342933975160122,
                -0.08848896622657776,
                0.1428195834159851,
                -0.07727651298046112,
                0.2734636664390564,
                0.07999658584594727,
                -0.16735687851905823,
                -0.03526855632662773,
                -0.14896702766418457
            ],
            [
                0.025607550516724586,
                -0.12895941734313965,
                0.1759929209947586,
                -0.10867303609848022,
                -0.19782763719558716,
                0.012926257215440273,
                -0.10465967655181885,
                -0.2431025207042694,
                0.13175871968269348,
                -0.05570250749588013,
                -0.02544528618454933,
                0.03007660247385502,
                -0.17206914722919464,
                0.17904850840568542,
                0.11746416240930557,
                0.18777817487716675,
                -0.017525432631373405,
                -0.1314823478460312,
                0.29050883650779724,
                -0.048727087676525116,
                0.1556141972541809,
                -0.10316234827041626,
                0.12175744026899338,
                -0.13033555448055267,
                -0.23339132964611053,
                0.1443280428647995,
                0.006337425671517849,
                0.14059332013130188,
                -0.07031136751174927,
                0.1245444267988205,
                0.0239943265914917,
                0.12588651478290558
            ],
            [
                0.04154331609606743,
                0.009925712831318378,
                0.08699232339859009,
                0.20777499675750732,
                -0.0891922116279602,
                0.18428131937980652,
                -0.22999191284179688,
                0.468126118183136,
                0.2506210505962372,
                0.047204792499542236,
                0.06114358827471733,
                -0.1179724633693695,
                0.3272985816001892,
                -0.20402878522872925,
                -0.13790105283260345,
                0.29524222016334534,
                -0.2194242626428604,
                0.023509755730628967,
                0.22357435524463654,
                0.05579781532287598,
                0.11468089371919632,
                0.30961984395980835,
                0.01748255454003811,
                0.1365928053855896,
                -0.20125991106033325,
                -0.11389598250389099,
                -0.04882394149899483,
                -0.0021375955548137426,
                0.04483133554458618,
                0.24569052457809448,
                -0.15787926316261292,
                -0.23329101502895355
            ],
            [
                0.19654038548469543,
                0.19897986948490143,
                -0.0044733257964253426,
                -0.11419409513473511,
                0.14792662858963013,
                0.094646155834198,
                -0.13766270875930786,
                -0.41194823384284973,
                0.309133917093277,
                0.07686871290206909,
                0.17910487949848175,
                0.5836322903633118,
                0.4836127460002899,
                -0.24199801683425903,
                0.12982292473316193,
                -0.4586898684501648,
                -0.21453681588172913,
                0.29212918877601624,
                0.14970193803310394,
                -0.24353493750095367,
                0.012691263109445572,
                0.3676590025424957,
                -0.09067210555076599,
                -0.018954627215862274,
                0.21018525958061218,
                0.40660175681114197,
                0.22098802030086517,
                0.3588266372680664,
                -0.05505746603012085,
                0.029093921184539795,
                0.22169700264930725,
                0.17821964621543884
            ],
            [
                0.0797584056854248,
                -0.20142775774002075,
                0.1784381866455078,
                -0.17439627647399902,
                0.14741003513336182,
                -0.09973734617233276,
                -0.1854535937309265,
                0.033057212829589844,
                0.11182451248168945,
                0.18559718132019043,
                -0.020685672760009766,
                0.16889405250549316,
                0.07721573114395142,
                -0.0013734102249145508,
                -0.052672505378723145,
                0.1334296464920044,
                0.19704020023345947,
                0.19133692979812622,
                0.05617976188659668,
                -0.04546499252319336,
                -0.12145662307739258,
                0.18053442239761353,
                0.015168547630310059,
                0.14564627408981323,
                -0.0352168083190918,
                0.15555673837661743,
                -0.0003197789192199707,
                -0.06411033868789673,
                -0.1998555064201355,
                0.12198156118392944,
                0.0038118362426757812,
                -0.18706965446472168
            ],
            [
                0.09628051519393921,
                0.24857759475708008,
                -0.14783930778503418,
                0.059800565242767334,
                -0.13482391834259033,
                0.02579212188720703,
                0.0035498738288879395,
                -0.028691112995147705,
                -0.11045181751251221,
                -0.24005359411239624,
                0.06972914934158325,
                0.10946232080459595,
                0.14304465055465698,
                0.06578344106674194,
                -0.012592315673828125,
                0.23615485429763794,
                -0.2313055396080017,
                0.1562659740447998,
                0.02621638774871826,
                0.09572267532348633,
                0.122408926486969,
                -0.18338042497634888,
                -0.09173285961151123,
                0.15826356410980225,
                -0.10750788450241089,
                0.08198380470275879,
                -0.12229007482528687,
                0.07730245590209961,
                0.22697895765304565,
                0.03442162275314331,
                -0.06781405210494995,
                -0.08320748805999756
            ],
            [
                0.039533402770757675,
                0.27812954783439636,
                0.15729784965515137,
                0.14899593591690063,
                0.03959992155432701,
                -0.0009005730389617383,
                -0.19237792491912842,
                -0.35883018374443054,
                0.3146754503250122,
                0.11497271060943604,
                0.07270985841751099,
                0.023968204855918884,
                0.15859754383563995,
                0.0951012447476387,
                -0.11558200418949127,
                -0.1336570680141449,
                -0.06858314573764801,
                -0.13641969859600067,
                0.2558388113975525,
                0.08593235909938812,
                0.16932827234268188,
                0.06547285616397858,
                0.10741513967514038,
                0.17709219455718994,
                0.14924229681491852,
                -0.0981808453798294,
                0.3808043599128723,
                -0.07795128226280212,
                -0.14500486850738525,
                0.0717650055885315,
                -0.13795967400074005,
                -0.019070075824856758
            ],
            [
                0.25310051441192627,
                0.040510859340429306,
                0.1781284213066101,
                0.11206990480422974,
                0.057179272174835205,
                -0.012214668095111847,
                -0.20624107122421265,
                -0.17231982946395874,
                -0.18804116547107697,
                0.17867588996887207,
                0.10370700806379318,
                -0.1952202469110489,
                -0.17861296236515045,
                -0.08930893242359161,
                -0.10121101886034012,
                -0.21038512885570526,
                -0.1278163194656372,
                0.08878115564584732,
                0.17792347073554993,
                -0.14616253972053528,
                0.0786316767334938,
                -0.2591944932937622,
                -0.05797269567847252,
                -0.18569308519363403,
                -0.07124544680118561,
                0.00798735860735178,
                -0.07421831786632538,
                0.16953028738498688,
                -0.009697794914245605,
                0.12439890205860138,
                0.022353850305080414,
                0.16339868307113647
            ],
            [
                0.21713657677173615,
                0.11392947286367416,
                -0.07093095034360886,
                -0.19581031799316406,
                -0.19305717945098877,
                0.2103874236345291,
                0.1797444224357605,
                0.13411740958690643,
                0.24057511985301971,
                0.20712584257125854,
                0.13145337998867035,
                0.1767955720424652,
                0.2630893290042877,
                -0.10762833803892136,
                -0.22891783714294434,
                0.15423323214054108,
                0.1344347596168518,
                0.19429796934127808,
                0.013255364261567593,
                0.020965008065104485,
                0.1026487872004509,
                0.11781205236911774,
                -0.14240707457065582,
                0.048883747309446335,
                -0.22514274716377258,
                0.304788202047348,
                0.03473726287484169,
                0.3426942229270935,
                -0.14142441749572754,
                -0.17841118574142456,
                -0.07560215890407562,
                0.0033894176594913006
            ],
            [
                0.006207568105310202,
                -0.05062716081738472,
                0.1511131078004837,
                -0.18968230485916138,
                0.033078230917453766,
                0.1902097463607788,
                -0.21054428815841675,
                0.14532534778118134,
                0.09324856102466583,
                0.06392759084701538,
                0.08818040043115616,
                0.12894529104232788,
                0.22080618143081665,
                -0.25125089287757874,
                -0.19542983174324036,
                0.1813867837190628,
                -0.22006207704544067,
                0.20550888776779175,
                0.21186259388923645,
                -0.07777846604585648,
                0.08434285968542099,
                0.2516617178916931,
                0.02884684130549431,
                -0.20653648674488068,
                -0.011264580301940441,
                0.3057701587677002,
                -0.013444398529827595,
                0.29356321692466736,
                -0.01804298162460327,
                -0.17180763185024261,
                0.1439404934644699,
                -0.2497379183769226
            ],
            [
                -0.11586250364780426,
                0.006124327890574932,
                -0.042265769094228745,
                -0.2442278265953064,
                -0.22823059558868408,
                -0.18938134610652924,
                0.20229434967041016,
                0.2624988853931427,
                0.14409920573234558,
                -0.07457882165908813,
                -0.059602245688438416,
                0.32316216826438904,
                0.24228516221046448,
                -0.014601610600948334,
                -0.18853186070919037,
                0.1524367779493332,
                -0.1141703724861145,
                0.23256176710128784,
                0.04008549451828003,
                0.18146829307079315,
                0.25735464692115784,
                0.29794812202453613,
                0.05703957378864288,
                -0.14991915225982666,
                -0.06125791370868683,
                0.293976753950119,
                0.0011930846376344562,
                -0.023826774209737778,
                -0.04063534736633301,
                -0.052249569445848465,
                -0.24942977726459503,
                -0.15458737313747406
            ],
            [
                -0.1746891736984253,
                0.14179152250289917,
                -0.23365265130996704,
                0.1154782772064209,
                0.036824584007263184,
                0.11766594648361206,
                0.002202153205871582,
                0.12020879983901978,
                0.11636132001876831,
                -0.1388435959815979,
                -0.10922807455062866,
                0.030163049697875977,
                0.10743200778961182,
                -0.07069003582000732,
                -0.045797646045684814,
                -0.09573310613632202,
                0.09924668073654175,
                -0.004890561103820801,
                -0.10269075632095337,
                -0.23931843042373657,
                -0.07392406463623047,
                -0.10628050565719604,
                0.09820044040679932,
                -0.040097713470458984,
                0.1432076096534729,
                -0.22092843055725098,
                -0.10397392511367798,
                0.06918555498123169,
                -0.09835964441299438,
                -0.008481621742248535,
                0.04239392280578613,
                0.026084065437316895
            ],
            [
                0.32158851623535156,
                -0.11760851740837097,
                0.18327000737190247,
                0.15009111166000366,
                -0.1266593188047409,
                0.015258376486599445,
                0.020502030849456787,
                -0.17710021138191223,
                0.2800142765045166,
                -0.06092637777328491,
                0.1864452064037323,
                0.1647556722164154,
                -0.03206007555127144,
                0.05587463825941086,
                0.12408410757780075,
                0.1560923159122467,
                -0.19514529407024384,
                0.2816052734851837,
                -0.002882598200812936,
                -0.10104245692491531,
                0.05068320035934448,
                0.046485718339681625,
                -0.2612500786781311,
                0.05913049355149269,
                0.05121415853500366,
                0.239282488822937,
                0.2586837410926819,
                0.1992952525615692,
                -0.013688921928405762,
                0.011239258572459221,
                0.17683564126491547,
                -0.0027481529396027327
            ],
            [
                0.021077454090118408,
                -0.1780451536178589,
                -0.0880359411239624,
                0.16592711210250854,
                0.07921099662780762,
                0.17465466260910034,
                -0.1820148229598999,
                0.012886643409729004,
                -0.20227843523025513,
                0.21510058641433716,
                -0.20571285486221313,
                0.047012925148010254,
                -0.09835231304168701,
                -0.04619622230529785,
                -0.0808526873588562,
                0.061258912086486816,
                0.01950019598007202,
                0.07869529724121094,
                0.19856148958206177,
                -0.12591052055358887,
                -0.07697916030883789,
                0.11414438486099243,
                -0.13062703609466553,
                0.14644724130630493,
                0.03234487771987915,
                -0.05531644821166992,
                -0.13514477014541626,
                0.007485508918762207,
                -0.008001744747161865,
                0.019766807556152344,
                0.1300046443939209,
                0.13931173086166382
            ],
            [
                0.18542622029781342,
                -0.025100592523813248,
                -0.16843217611312866,
                0.23050034046173096,
                0.15592214465141296,
                -0.15336845815181732,
                0.21908992528915405,
                0.06624706834554672,
                -0.023170478641986847,
                -0.12168622016906738,
                -0.10735268890857697,
                -0.03458303213119507,
                0.031193701550364494,
                0.10211148113012314,
                -0.07584058493375778,
                -0.1442771703004837,
                -0.042898911982774734,
                -0.10088752955198288,
                0.06377290189266205,
                -0.014378278516232967,
                0.13318896293640137,
                -0.018112003803253174,
                -0.049250904470682144,
                0.0904632955789566,
                0.014720362611114979,
                -0.16353686153888702,
                -0.12974034249782562,
                -0.07764887064695358,
                -0.11658585071563721,
                -0.14050470292568207,
                0.020402610301971436,
                0.2042546421289444
            ],
            [
                0.0583762526512146,
                0.09207189083099365,
                -0.12393611669540405,
                -0.18563693761825562,
                -0.04245316982269287,
                0.1211317777633667,
                0.11312806606292725,
                -0.02341461181640625,
                0.06009751558303833,
                -0.09596902132034302,
                -0.22552955150604248,
                -0.06858348846435547,
                0.03339707851409912,
                0.23597568273544312,
                -0.03883999586105347,
                -0.23512589931488037,
                0.18419182300567627,
                0.1199411153793335,
                -0.19719421863555908,
                -0.08734244108200073,
                -0.22809869050979614,
                0.05367481708526611,
                0.17414528131484985,
                -0.24653172492980957,
                0.16080433130264282,
                0.016656219959259033,
                0.23487991094589233,
                0.19151747226715088,
                0.00974273681640625,
                -0.20319628715515137,
                0.24951118230819702,
                0.1686142086982727
            ],
            [
                -0.002079904079437256,
                0.04633277654647827,
                0.03661137819290161,
                0.03727531433105469,
                0.0880054235458374,
                -0.15755677223205566,
                -0.10679203271865845,
                0.15591132640838623,
                -0.14117401838302612,
                -0.0906030535697937,
                -0.029546618461608887,
                -0.046813130378723145,
                -0.0953642725944519,
                0.1682729721069336,
                0.05005455017089844,
                0.14234179258346558,
                0.20993804931640625,
                -0.1298953890800476,
                -0.2048497200012207,
                0.039852261543273926,
                -0.11032378673553467,
                0.20203691720962524,
                -0.11216384172439575,
                -0.1790757179260254,
                0.10169422626495361,
                0.14234495162963867,
                -0.24098408222198486,
                0.006316781044006348,
                0.16901415586471558,
                0.24010491371154785,
                0.14720362424850464,
                0.22186356782913208
            ],
            [
                0.054653365164995193,
                -0.1394456923007965,
                0.06084677577018738,
                -0.019142985343933105,
                -0.060720205307006836,
                0.22616736590862274,
                0.012279093265533447,
                -0.15481510758399963,
                0.2562916576862335,
                0.021740078926086426,
                0.14173127710819244,
                0.1391322910785675,
                0.2039320170879364,
                -0.25514721870422363,
                -0.2657756507396698,
                0.07924677431583405,
                0.0863085463643074,
                0.21073192358016968,
                -0.040589071810245514,
                -0.23405064642429352,
                0.004567725118249655,
                0.3225458562374115,
                0.08894407004117966,
                -0.14610715210437775,
                -0.17216090857982635,
                0.05541801452636719,
                -0.1259068250656128,
                0.11872167885303497,
                -0.23890525102615356,
                0.22358036041259766,
                0.15073372423648834,
                -0.06046018376946449
            ],
            [
                0.12035691738128662,
                0.13824522495269775,
                0.06551278382539749,
                0.23886066675186157,
                0.07143115997314453,
                -0.18863867223262787,
                -0.2001340389251709,
                0.27706095576286316,
                -0.008278545923531055,
                -0.07997947931289673,
                -0.01563507877290249,
                0.08279215544462204,
                0.22165700793266296,
                0.14124800264835358,
                -0.045945215970277786,
                0.10663754492998123,
                0.02314412221312523,
                0.18536484241485596,
                0.18786314129829407,
                0.020361676812171936,
                0.04847833141684532,
                0.30722641944885254,
                -0.21781934797763824,
                -0.2411830872297287,
                -0.1476641148328781,
                -0.06811743974685669,
                -0.1220579743385315,
                0.2820934057235718,
                0.07027387619018555,
                -0.17111334204673767,
                0.13543365895748138,
                0.20869803428649902
            ],
            [
                0.01421572919934988,
                0.31422728300094604,
                -0.2307761311531067,
                -0.12163126468658447,
                -0.24668969213962555,
                -0.06570315361022949,
                -0.22818434238433838,
                -0.25886309146881104,
                0.2949272692203522,
                -0.24272572994232178,
                -0.02514980547130108,
                0.027314860373735428,
                0.2169966697692871,
                -0.2100384533405304,
                -0.10118786245584488,
                -0.15993830561637878,
                0.017662564292550087,
                0.2818889915943146,
                0.01582883670926094,
                0.09954825788736343,
                0.052193962037563324,
                0.32941773533821106,
                0.08988010138273239,
                0.10522863268852234,
                -0.2109631448984146,
                0.1447979062795639,
                0.04956342279911041,
                0.22439047694206238,
                9.894371032714844e-05,
                -0.18452291190624237,
                -0.21225671470165253,
                -0.019672591239213943
            ],
            [
                0.02944195456802845,
                -0.07526284456253052,
                0.008090146817266941,
                0.08041942119598389,
                -0.05959981679916382,
                0.11314782500267029,
                0.11516964435577393,
                0.19218289852142334,
                -0.0963207334280014,
                0.07902777194976807,
                -0.031335972249507904,
                0.1264132559299469,
                0.09703808277845383,
                -0.0824316143989563,
                -0.02578289434313774,
                -0.15898077189922333,
                0.0733628049492836,
                -0.028592238202691078,
                0.20527660846710205,
                -0.07657552510499954,
                0.18170972168445587,
                0.18512482941150665,
                -0.03271670266985893,
                0.07674399763345718,
                0.08734479546546936,
                -0.13475686311721802,
                0.19706331193447113,
                -0.06062634289264679,
                0.2416701316833496,
                -0.140863299369812,
                -0.16417492926120758,
                0.05036960542201996
            ],
            [
                0.005739665124565363,
                0.16858439147472382,
                -0.1381257027387619,
                0.1658671498298645,
                -0.1048097088932991,
                0.171832874417305,
                0.10138171911239624,
                0.12470070272684097,
                0.15072409808635712,
                -0.2021670937538147,
                0.09525120258331299,
                -0.10445178300142288,
                -0.08337472379207611,
                0.21199776232242584,
                -0.0907740443944931,
                -0.1300150603055954,
                0.14404483139514923,
                0.17826975882053375,
                -0.09540276974439621,
                0.021168287843465805,
                -0.19205625355243683,
                0.08282281458377838,
                0.21065914630889893,
                -0.21851107478141785,
                0.011388834565877914,
                0.3093470335006714,
                -0.1016979068517685,
                0.12158947438001633,
                -0.18199384212493896,
                -0.09942902624607086,
                -0.1501932591199875,
                0.16348794102668762
            ],
            [
                0.3025704026222229,
                -0.11549859493970871,
                -0.11722977459430695,
                -0.1624245047569275,
                0.1253627985715866,
                -0.07559555768966675,
                -0.20076847076416016,
                0.22536064684391022,
                0.07692798972129822,
                0.021826326847076416,
                -0.27263128757476807,
                -0.1206142008304596,
                0.1214698776602745,
                -0.017281651496887207,
                0.20601676404476166,
                0.06391722708940506,
                0.18256936967372894,
                -0.015348382294178009,
                0.1455918550491333,
                -0.05030583217740059,
                0.16239897906780243,
                0.14432643353939056,
                -0.24755126237869263,
                0.08787457644939423,
                -0.16432207822799683,
                -0.10658326745033264,
                0.2723996639251709,
                0.061326008290052414,
                0.2440708875656128,
                -0.09248044341802597,
                -0.2436908483505249,
                0.19882644712924957
            ],
            [
                0.2968316376209259,
                0.30231910943984985,
                -0.23108962178230286,
                -0.1883453130722046,
                -0.16116350889205933,
                -0.03260817006230354,
                -0.031707048416137695,
                0.07348214834928513,
                -0.15946653485298157,
                -0.0588001012802124,
                -0.27395740151405334,
                0.2846828103065491,
                0.2968912720680237,
                -0.23662815988063812,
                -0.23907512426376343,
                -0.07973512262105942,
                0.16103439033031464,
                0.31657683849334717,
                0.06776871532201767,
                -0.15682928264141083,
                0.17615073919296265,
                -0.01704002358019352,
                -0.22014574706554413,
                -0.24012835323810577,
                0.06876083463430405,
                0.27592983841896057,
                0.2590484321117401,
                0.2269468754529953,
                -0.18005293607711792,
                -0.2223883718252182,
                0.17230895161628723,
                0.12323619425296783
            ],
            [
                0.15223276615142822,
                0.127931609749794,
                0.14532385766506195,
                -0.07597273588180542,
                -0.12135851383209229,
                0.11872657388448715,
                -0.20885246992111206,
                0.3119319677352905,
                0.03253331407904625,
                0.24504190683364868,
                -0.23164154589176178,
                -0.09178029745817184,
                -0.12573449313640594,
                -0.11170226335525513,
                0.05392411723732948,
                0.14315354824066162,
                -0.1444745510816574,
                -0.12002798914909363,
                -0.0029491293244063854,
                -0.2581814229488373,
                -0.19126038253307343,
                0.15819098055362701,
                0.18446989357471466,
                0.05894659459590912,
                -0.19873438775539398,
                -0.05984609201550484,
                0.05419054254889488,
                -0.015717601403594017,
                0.12948685884475708,
                -0.17998218536376953,
                -0.19091804325580597,
                0.1421261429786682
            ],
            [
                -0.047694429755210876,
                -0.08461511135101318,
                -0.10894987732172012,
                0.2014232873916626,
                0.03964812308549881,
                0.09217358380556107,
                -0.17512190341949463,
                -0.2539592683315277,
                -0.005064749624580145,
                -0.18282312154769897,
                -0.03647106885910034,
                2.401134042884223e-05,
                -0.08114124834537506,
                -0.21042364835739136,
                0.11135628819465637,
                0.035865187644958496,
                -0.10293859243392944,
                -0.11705771833658218,
                0.09852655231952667,
                0.1791825145483017,
                -0.25550973415374756,
                -0.09691617637872696,
                0.15477406978607178,
                -0.1728392392396927,
                0.08819444477558136,
                0.05087956786155701,
                -0.07832090556621552,
                -0.17642417550086975,
                0.19351297616958618,
                0.07178246974945068,
                -0.0013251681812107563,
                -0.14667779207229614
            ],
            [
                0.32856932282447815,
                0.18536382913589478,
                0.011157544329762459,
                0.21580290794372559,
                0.22114036977291107,
                -0.04150814935564995,
                -0.15477323532104492,
                -0.17901842296123505,
                0.07208202034235,
                0.1400051712989807,
                -0.0003451975353527814,
                -0.10022327303886414,
                0.24473431706428528,
                -0.12832170724868774,
                0.07668404281139374,
                0.12355204671621323,
                -0.2471059113740921,
                0.18260382115840912,
                0.1326264888048172,
                -0.011292346753180027,
                0.16141444444656372,
                0.082778200507164,
                -0.16608652472496033,
                -0.075334332883358,
                -0.11664804816246033,
                -0.02862490527331829,
                0.07983386516571045,
                -0.1095624566078186,
                0.17136943340301514,
                -0.028788745403289795,
                0.1078738123178482,
                -0.26272451877593994
            ],
            [
                0.06017334386706352,
                0.35024264454841614,
                0.08472470939159393,
                -0.095306396484375,
                -0.15908412635326385,
                -0.07259009033441544,
                -0.13695520162582397,
                -0.25657010078430176,
                0.2926993668079376,
                0.1203010082244873,
                -0.20331819355487823,
                0.1684807986021042,
                -0.13649581372737885,
                0.22618544101715088,
                0.036371294409036636,
                -0.11458330601453781,
                0.011159182526171207,
                -0.10348211973905563,
                0.15933163464069366,
                -0.0564114935696125,
                -0.21066723763942719,
                0.07711738348007202,
                0.04624394699931145,
                0.1587262600660324,
                0.0538870245218277,
                0.1487109363079071,
                -0.07282605022192001,
                -0.06987038254737854,
                -0.12953674793243408,
                0.07771675288677216,
                -0.08591268956661224,
                -0.26719480752944946
            ],
            [
                -0.05131310224533081,
                -0.07752552628517151,
                0.014073142781853676,
                -0.011275708675384521,
                -0.055610910058021545,
                0.03805216774344444,
                0.21917152404785156,
                0.1982812136411667,
                0.0737263560295105,
                -0.17930859327316284,
                0.025145847350358963,
                0.3463709056377411,
                -0.08497708290815353,
                -0.1215730831027031,
                0.220892995595932,
                -0.16232334077358246,
                0.14062677323818207,
                -0.15173031389713287,
                0.0534512959420681,
                0.15075573325157166,
                0.0683991014957428,
                0.034409862011671066,
                0.01990097016096115,
                0.016741666942834854,
                -0.19070188701152802,
                -0.05804700404405594,
                0.30294713377952576,
                -0.10183356702327728,
                -0.19446402788162231,
                0.04911492019891739,
                -0.1109190508723259,
                -0.023351222276687622
            ],
            [
                -0.10442566871643066,
                -0.1713552474975586,
                0.1894814372062683,
                0.19406944513320923,
                0.024594604969024658,
                0.014910399913787842,
                -0.05569249391555786,
                -0.020346343517303467,
                0.1973201036453247,
                -0.11752378940582275,
                -0.015639662742614746,
                -0.19068270921707153,
                0.012206673622131348,
                -0.12929219007492065,
                0.009908795356750488,
                -0.08895915746688843,
                -0.03961944580078125,
                0.07912123203277588,
                0.13804244995117188,
                -0.22193700075149536,
                0.0012832880020141602,
                0.017138898372650146,
                -0.046775639057159424,
                0.11850446462631226,
                -0.06208229064941406,
                -0.1924588680267334,
                -0.05533885955810547,
                -0.15782535076141357,
                0.17683178186416626,
                0.21756607294082642,
                -0.20802676677703857,
                -0.0795336365699768
            ],
            [
                -0.003295004367828369,
                -0.049065232276916504,
                -0.2294977903366089,
                -0.21847409009933472,
                -0.12985354661941528,
                -0.034473299980163574,
                0.168890118598938,
                -0.016129672527313232,
                -0.11512130498886108,
                0.08557116985321045,
                0.18327254056930542,
                -0.004208922386169434,
                -0.1897403597831726,
                -0.10511738061904907,
                -0.01910930871963501,
                -0.2445957064628601,
                -0.2367342710494995,
                -0.061752498149871826,
                -0.1668109893798828,
                0.17500823736190796,
                -0.21671408414840698,
                0.05819857120513916,
                -0.16377806663513184,
                -0.23321086168289185,
                -0.12314814329147339,
                -0.08656376600265503,
                0.24828612804412842,
                0.035580575466156006,
                -0.20842546224594116,
                -0.23312413692474365,
                0.12872737646102905,
                -0.12713682651519775
            ],
            [
                0.2483386993408203,
                -0.12758052349090576,
                0.17606401443481445,
                -0.01990962028503418,
                -0.11223000288009644,
                0.22704988718032837,
                -0.1303858757019043,
                -0.15742915868759155,
                0.0744592547416687,
                0.057336270809173584,
                0.1102023720741272,
                0.06798648834228516,
                0.20784664154052734,
                -0.20167291164398193,
                -0.22677892446517944,
                0.09954583644866943,
                0.029282689094543457,
                -0.24401754140853882,
                0.11444729566574097,
                0.20909100770950317,
                0.1324828863143921,
                -0.020505309104919434,
                0.24418377876281738,
                0.18758922815322876,
                0.17346185445785522,
                0.16872918605804443,
                -0.23351848125457764,
                -0.0035453438758850098,
                -0.15684860944747925,
                0.12646645307540894,
                0.11483770608901978,
                0.23805344104766846
            ],
            [
                -0.3314994275569916,
                -0.06626749783754349,
                -0.12339276820421219,
                0.08142107725143433,
                -0.12418490648269653,
                -0.026555053889751434,
                0.018041372299194336,
                0.4122520685195923,
                0.07573593407869339,
                0.058714985847473145,
                0.21113960444927216,
                -0.23390673100948334,
                -0.30204033851623535,
                -0.12490874528884888,
                0.2042139172554016,
                0.3284270167350769,
                -0.15665964782238007,
                -0.09775148332118988,
                -0.06483151763677597,
                0.1359724998474121,
                0.3104085326194763,
                0.029711229726672173,
                -0.17252609133720398,
                -0.08481577783823013,
                -0.016469774767756462,
                -0.23921041190624237,
                -0.532878041267395,
                -0.39539259672164917,
                0.09085816144943237,
                0.04493451118469238,
                0.002022648463025689,
                -0.2364862561225891
            ],
            [
                -0.10290847718715668,
                0.1109120324254036,
                -0.024187589064240456,
                -0.013421356678009033,
                -0.037711095064878464,
                -0.040379006415605545,
                0.16450542211532593,
                0.05176849290728569,
                0.15385006368160248,
                -0.13617974519729614,
                0.13603420555591583,
                0.284265398979187,
                -0.10581683367490768,
                -0.02479410171508789,
                0.19484956562519073,
                0.028784912079572678,
                -0.22189530730247498,
                0.2357296645641327,
                0.30497774481773376,
                -0.08140461891889572,
                0.056959398090839386,
                0.327096164226532,
                -0.21902382373809814,
                -0.0810529813170433,
                -0.06111336871981621,
                0.10333941876888275,
                0.2010124921798706,
                0.36062926054000854,
                0.12321662902832031,
                0.16077286005020142,
                -0.23130349814891815,
                0.19951333105564117
            ],
            [
                0.28324976563453674,
                0.13809292018413544,
                -0.17331820726394653,
                -0.034967780113220215,
                -0.01824086531996727,
                -0.18037697672843933,
                -0.2111913561820984,
                0.08493538200855255,
                0.31139251589775085,
                -0.22255736589431763,
                -0.08974749594926834,
                0.3388209342956543,
                0.31809619069099426,
                0.19996970891952515,
                0.026385607197880745,
                -0.10157958418130875,
                0.1621769219636917,
                0.0683220624923706,
                -0.0420282781124115,
                -0.18437817692756653,
                -0.1269150674343109,
                -0.05023040249943733,
                0.06989715993404388,
                0.21771863102912903,
                -0.13534127175807953,
                0.08975964039564133,
                0.045181963592767715,
                0.266105979681015,
                -0.10167104005813599,
                -0.06709954887628555,
                -0.19324633479118347,
                0.036905162036418915
            ],
            [
                0.1734813004732132,
                0.08459921181201935,
                -0.14303632080554962,
                0.02550119161605835,
                -0.12301159650087357,
                -0.17027345299720764,
                -0.12997198104858398,
                0.1118711531162262,
                0.1528802067041397,
                0.06742197275161743,
                0.00441142451018095,
                -0.10437168926000595,
                0.10848169028759003,
                0.05205148458480835,
                0.056342314928770065,
                -0.026143155992031097,
                -0.1711471676826477,
                0.2422086000442505,
                0.19760479032993317,
                0.022716272622346878,
                0.21169690787792206,
                0.3389478027820587,
                0.0022801498416811228,
                -0.1377517431974411,
                -0.02788916788995266,
                0.20967480540275574,
                -0.049887124449014664,
                0.06102177873253822,
                -0.04467439651489258,
                -0.2593684196472168,
                0.1729707568883896,
                -0.15488724410533905
            ],
            [
                0.16771337389945984,
                -0.08816089481115341,
                0.12009963393211365,
                0.1410055160522461,
                -0.1928374469280243,
                -0.2231806516647339,
                -0.14846736192703247,
                0.19248872995376587,
                0.23754464089870453,
                0.16981250047683716,
                0.08379724621772766,
                0.13166552782058716,
                0.08940618485212326,
                -0.10845426470041275,
                0.18085414171218872,
                0.1553339958190918,
                -0.1823267936706543,
                0.18106494843959808,
                0.22761541604995728,
                -0.22592104971408844,
                -0.09393789619207382,
                -0.07018164545297623,
                -0.0057367621921002865,
                -0.033726807683706284,
                -0.09639030694961548,
                0.05731961131095886,
                0.19141404330730438,
                0.27453306317329407,
                0.1048440933227539,
                -0.06851580739021301,
                -0.12878894805908203,
                0.21756073832511902
            ],
            [
                0.265094518661499,
                0.2829115688800812,
                0.12231370061635971,
                -0.04065781831741333,
                -0.1520768702030182,
                -0.2151666134595871,
                0.16529220342636108,
                0.07250785082578659,
                0.17980152368545532,
                -0.2477794885635376,
                -0.03674338385462761,
                0.25970458984375,
                0.08770181238651276,
                -0.19425512850284576,
                -0.11106032878160477,
                0.060614995658397675,
                -0.02915595844388008,
                -0.0038420818746089935,
                0.3120991587638855,
                0.058503322303295135,
                -0.22625480592250824,
                0.030420374125242233,
                0.1824018955230713,
                -0.2642432749271393,
                0.002713750582188368,
                -0.05658140406012535,
                -0.09649408608675003,
                0.07018554955720901,
                -0.21061408519744873,
                0.15784499049186707,
                0.050726693123579025,
                0.045642878860235214
            ],
            [
                0.06752300262451172,
                -0.17492610216140747,
                -0.16562318801879883,
                -0.029627501964569092,
                -0.1698715090751648,
                0.13820397853851318,
                0.24189645051956177,
                -0.19263392686843872,
                0.10518312454223633,
                0.025844275951385498,
                -0.04994088411331177,
                0.17974507808685303,
                -0.027749598026275635,
                -0.13779819011688232,
                -0.1305842399597168,
                0.1795908808708191,
                0.14720135927200317,
                0.13786137104034424,
                -0.18367624282836914,
                -0.034981369972229004,
                0.14120852947235107,
                0.15170365571975708,
                0.0830957293510437,
                0.08049088716506958,
                -0.13438135385513306,
                0.20695936679840088,
                -0.024207770824432373,
                0.20034486055374146,
                -0.1479448676109314,
                0.07216590642929077,
                -0.15471971035003662,
                -0.2273566722869873
            ],
            [
                0.2715844511985779,
                0.05674954876303673,
                0.2483154535293579,
                0.19529688358306885,
                -0.20787465572357178,
                0.17828650772571564,
                -0.2196914553642273,
                0.39182138442993164,
                0.3143058717250824,
                -0.09349745512008667,
                -0.23138585686683655,
                0.039834778755903244,
                -0.054003722965717316,
                -0.18566465377807617,
                -0.257428914308548,
                0.30135783553123474,
                0.22060178220272064,
                0.19665248692035675,
                0.024803616106510162,
                -0.12944486737251282,
                0.14884008467197418,
                -0.05305783823132515,
                -0.1913813203573227,
                -0.1603793352842331,
                -0.21123769879341125,
                0.20906463265419006,
                0.16006067395210266,
                0.08071620762348175,
                -0.15842920541763306,
                0.24594515562057495,
                0.07660756260156631,
                0.026836978271603584
            ],
            [
                0.0022010246757417917,
                0.33819809556007385,
                0.04799807071685791,
                -0.16150116920471191,
                -0.048102881759405136,
                -0.143817737698555,
                0.05461442470550537,
                0.13934218883514404,
                0.25322338938713074,
                -0.011310040950775146,
                -0.036159731447696686,
                -0.022036738693714142,
                0.013130232691764832,
                0.171628937125206,
                0.22015397250652313,
                -0.006651147268712521,
                0.10829786956310272,
                0.3082219064235687,
                0.05972173064947128,
                -0.15989965200424194,
                0.08370602875947952,
                -0.04398981109261513,
                0.04672631993889809,
                -0.11256613582372665,
                0.12554287910461426,
                0.07930701225996017,
                -0.062155865132808685,
                0.18143747746944427,
                -0.0985146164894104,
                0.22671113908290863,
                -0.051676876842975616,
                -0.1676522195339203
            ],
            [
                0.2612636983394623,
                -0.01811932772397995,
                -0.10849309712648392,
                -0.14193195104599,
                -0.031239449977874756,
                -0.12836888432502747,
                -0.05162078142166138,
                0.12878723442554474,
                0.3222300708293915,
                0.15492135286331177,
                -0.1353129893541336,
                0.07897856831550598,
                -0.08329379558563232,
                0.23290356993675232,
                0.15927477180957794,
                -0.018669607117772102,
                -0.04462132975459099,
                0.2683815360069275,
                0.1979455053806305,
                -0.0793418288230896,
                0.0080961212515831,
                0.09044790267944336,
                -0.03069213032722473,
                -0.2598186135292053,
                -0.19894281029701233,
                0.054902710020542145,
                0.2945820689201355,
                -0.06880497187376022,
                -0.1801249384880066,
                0.17224128544330597,
                -0.24473649263381958,
                0.006536819972097874
            ],
            [
                0.1519787460565567,
                -0.011191410012543201,
                -0.08555290102958679,
                -0.0388452410697937,
                0.009611070156097412,
                0.030810613185167313,
                0.1811906099319458,
                0.30898162722587585,
                0.3154250979423523,
                -0.074360191822052,
                -0.2361239641904831,
                -0.05270899832248688,
                -0.0430595800280571,
                -0.007396232336759567,
                -0.014999947510659695,
                0.22157183289527893,
                0.15221035480499268,
                0.28196728229522705,
                0.3153686225414276,
                0.12592965364456177,
                -0.0015263778623193502,
                0.12655246257781982,
                0.13897596299648285,
                -0.15259361267089844,
                -0.017224648967385292,
                0.32974982261657715,
                0.25246191024780273,
                0.29546138644218445,
                -0.17275243997573853,
                -0.1408585011959076,
                -0.18078471720218658,
                -0.06659045815467834
            ],
            [
                -0.0694795548915863,
                -0.13334067165851593,
                -0.04176650941371918,
                0.24023079872131348,
                0.19810201227664948,
                0.22332444787025452,
                -0.11505138874053955,
                0.011546771973371506,
                -0.12518416345119476,
                0.10809993743896484,
                -0.0011031173635274172,
                0.0002921632840298116,
                -0.10702817887067795,
                0.2348114252090454,
                0.14365842938423157,
                0.11001139879226685,
                0.22911055386066437,
                0.18144285678863525,
                0.2657746970653534,
                0.08573155105113983,
                -0.06737145036458969,
                0.04556354880332947,
                -0.2721366584300995,
                0.22943741083145142,
                0.16308991611003876,
                0.21729694306850433,
                0.2662160098552704,
                0.11434993892908096,
                0.15857011079788208,
                -0.25690266489982605,
                -0.052139006555080414,
                0.21694187819957733
            ]
        ],
        "biases": [
            0.06238224729895592,
            0.07426094263792038,
            -0.021472536027431488,
            0.0,
            -0.0090698953717947,
            -0.019241489470005035,
            0.0,
            0.21635769307613373,
            0.06173089146614075,
            0.0,
            -0.035966549068689346,
            0.07112494111061096,
            0.062370941042900085,
            -0.005346609745174646,
            -0.026043176651000977,
            0.052957743406295776,
            -0.019811885431408882,
            0.06669948995113373,
            0.06346641480922699,
            -0.021628007292747498,
            -0.019089071080088615,
            0.0704132542014122,
            -0.03137611970305443,
            -0.018462341278791428,
            -0.017398938536643982,
            0.07234565913677216,
            0.07982940226793289,
            0.07395266741514206,
            0.0,
            -0.013174081221222878,
            -0.04285059869289398,
            -0.028306007385253906
        ]
    },
    "output_layer": {
        "weights": [
            [
                0.33297082781791687
            ],
            [
                0.29967382550239563
            ],
            [
                -0.19912222027778625
            ],
            [
                -0.3462369740009308
            ],
            [
                -0.3142562508583069
            ],
            [
                -0.15545906126499176
            ],
            [
                0.3249230980873108
            ],
            [
                -0.3143066167831421
            ],
            [
                0.4831308424472809
            ],
            [
                -0.3289799392223358
            ],
            [
                -0.29178446531295776
            ],
            [
                0.12994813919067383
            ],
            [
                0.4695073068141937
            ],
            [
                -0.3322126269340515
            ],
            [
                -0.22740021347999573
            ],
            [
                -0.5660772323608398
            ],
            [
                -0.4043823182582855
            ],
            [
                0.3645886480808258
            ],
            [
                0.24771980941295624
            ],
            [
                -0.38288813829421997
            ],
            [
                -0.36819538474082947
            ],
            [
                0.14710143208503723
            ],
            [
                -0.21645352244377136
            ],
            [
                -0.3578689694404602
            ],
            [
                -0.4013845920562744
            ],
            [
                0.47041988372802734
            ],
            [
                0.3349316120147705
            ],
            [
                0.1142713725566864
            ],
            [
                -0.19525441527366638
            ],
            [
                -0.14229464530944824
            ],
            [
                -0.2891468107700348
            ],
            [
                -0.3591362535953522
            ]
        ],
        "biases": [
            0.06068024784326553
        ]
    }
}