{
    "w1": [
        [
            0,
            6695264577865601,
            18940791487693788,
            18255135416984560,
            12641027569770812,
            30858591198921204,
            -4264739155769348,
            23730555176734924,
            -16727003455162048,
            -27189761400222780,
            -18453523516654968,
            40561196208000184,
            -38214975595474240,
            -1581084728240966,
            37423333525657656,
            0,
            -7832109928131104,
            41342493891716000,
            16975578665733338,
            -11885038018226624,
            14405313134193420,
            41265526413917544,
            -30176177620887756,
            27849391102790832,
            18905737996101380,
            -31229808926582336,
            -12944918870925904,
            -9014180302619934,
            36626902222633360,
            24446520209312440,
            5940183997154236,
            11108490824699402
        ],
        [
            -32278156280517580,
            -36920383572578432,
            -4709687829017639,
            -254,
            -1479753851890564,
            30243036150932312,
            -35182550549507140,
            -39670819044113160,
            4968112707138062,
            -37571901082992552,
            -11443114280700684,
            -38467115163803104,
            -22382733225822448,
            28393086791038512,
            -18926386535167696,
            38361224532127384,
            22535249590873720,
            -41032481193542480,
            -30604213476181032,
            38015493750572208,
            32619789242744444,
            13815304636955262,
            -34671860933303832,
            3418251872062683,
            173828005790710,
            -11272129416465760,
            7489463686943054,
            17446365952491760,
            33106729388237000,
            -31000661849975584,
            -19845588505268096,
            -28830450773239136
        ],
        [
            -25534653663635252,
            -37712430953979496,
            -12707826495170594,
            26282653212547304,
            -41340065002441408,
            21585050225257872,
            -32198733091354372,
            -19281572103500368,
            87371468544006,
            37291547656059264,
            -15700420737266540,
            -23541860282421112,
            18101212382316588,
            -14811158180236816,
            13568082451820374,
            7709240913391113,
            -41205310821533200,
            -8547919988632202,
            25733038783073424,
            14259877800941468,
            7142686843872070,
            -40091383457183840,
            -20254464447498320,
            39215382933616640,
            1518487930297851,
            -28377455472946168,
            26460734009742736,
            12296804785728454,
            -12994948029518128,
            34352102875709532,
            -36586469411849976,
            24427035450935364
        ]
    ],
    "b1": [
        0,
        0,
        0,
        0,
        0,
        0,
        0,
        0,
        0,
        0,
        0,
        0,
        0,
        0,
        0,
        0,
        0,
        0,
        0,
        0,
        0,
        0,
        0,
        0,
        0,
        0,
        0,
        0,
        0,
        0,
        0,
        0
    ],
    "w2": [
        [
            20675298571586608,
            -27024686336517332,
            -25319483876228332,
            20681348443031312,
            24620327353477480,
            -5350989103317261,
            -32781878113746644,
            32171568274497984,
            10966122150421142,
            -23236012458801268,
            -13319854438304902,
            -11954152584075928,
            -32777959108352660,
            20767471194267272,
            13159215450286866,
            32270655035972596
        ],
        [
            -1211374998092651,
            -24973753094673156,
            -229462981224060,
            26446470618247984,
            -6392607092857361,
            92470645904541,
            12264832854270936,
            10217592120170594,
            5590391159057617,
            -7411903142929077,
            3872746229171753,
            -9835675358772278,
            -2327105402946472,
            28508606553077696,
            -30213093757629396,
            11666661500930786
        ],
        [
            -31529197096824644,
            -30267152190208436,
            -289750099182128,
            -17970851063728332,
            12643668055534362,
            169312953948974,
            -2816107869148254,
            29723331332206728,
            -27097412943840028,
            5024164915084839,
            1440435647964477,
            -29904142022132872,
            12364882230758666,
            -32298865914344788,
            -14660072326660156,
            -20319046080112456
        ],
        [
            31266227364540100,
            -13274276256561280,
            -26243972778320312,
            -29156228899955748,
            14741280674934388,
            29909136891365052,
            10081651806831360,
            -15624342858791352,
            6228291988372803,
            33027026057243348,
            -16227792203426362,
            -33263084292411804,
            -1879698038101196,
            -30974197387695312,
            18166878819465636,
            2654543519020080
        ],
        [
            1320493221282959,
            -21272651851177216,
            6440907716751099,
            13519874215126038,
            32799604535102844,
            -13909943401813508,
            9722906351089478,
            -17007197439670562,
            7520818710327148,
            34691789746284484,
            -27974784374237060,
            5868417024612427,
            -15517921745777130,
            -33846533298492432,
            24890032410621644,
            -26422077417373656
        ],
        [
            -35301265120506288,
            -16219945251941680,
            -20296691358089448,
            -3253492712974548,
            6589683890342712,
            21456083655357360,
            17555585503578186,
            7376787066459656,
            -24157325923442840,
            -14009223878383636,
            -4901972413063049,
            -32078042626380920,
            10870480537414550,
            32577630877494812,
            -769594311714172,
            6406599283218384
        ],
        [
            -30231326818466188,
            -31541690230369568,
            11633053421974182,
            31932762265205384,
            -2181065082550048,
            -32734191417694092,
            34343424439430236,
            11494019627571106,
            17009201645851136,
            8382880687713623,
            27698454260826112,
            -20262020826339720,
            8666899800300598,
            -26471331715583800,
            24513736367225648,
            -31788551807403564
        ],
        [
            -20015655457973480,
            11638623476028442,
            -14987924695014954,
            5380651354789734,
            -34902849793434144,
            -334131717681884,
            32774314284324644,
            8190438151359558,
            822031497955322,
            -2769309282302856,
            -26841044425964356,
            -32905182242393492,
            -34149390459060668,
            28131291270256044,
            -21945779025554656,
            29393866658210756
        ],
        [
            -2168926596641540,
            19410529732704164,
            -17018307745456696,
            20404091477394104,
            -11786374449729920,
            19800326228141784,
            3989434242248535,
            11438754200935364,
            -15570966899394990,
            18928906321525572,
            15102884173393250,
            34375497698783876,
            35242518782615660,
            32885339856147768,
            -11530779302120208,
            28221109509468080
        ],
        [
            532996654510498,
            -29704129695892332,
            29485109448432924,
            -31446841359138488,
            -17016722261905670,
            -28686660528182984,
            -6755709648132324,
            28490027785301208,
            -15350641310214996,
            25549927353858948,
            31225791573524476,
            -18787479400634764,
            -13103269040584564,
            1138353347778320,
            8810040354728699,
            -13321109116077424
        ],
        [
            -2279174327850342,
            -12061542272567750,
            19420078396797180,
            8298048377037048,
            24276682734489440,
            -6275048851966858,
            -21604061126708984,
            8238840103149414,
            -24903434514999388,
            -26279798150062560,
            -16949321329593658,
            -21823789179325104,
            -522807240486145,
            30814537405967712,
            -10524751245975494,
            -28903716802597044
        ],
        [
            -31829088926315308,
            -32592064142227172,
            -4190266132354736,
            -14131365716457366,
            -27548006176948548,
            -10977947711944580,
            -3067979216575622,
            -16692873835563660,
            17617961764335632,
            -15678054094314576,
            -18852747976779936,
            -23828099668025972,
            -34346434473991396,
            12839943170547486,
            13298738002777100,
            18851998448371888
        ],
        [
            33644160628318788,
            -1709803938865661,
            -17310680449008942,
            7721048593521118,
            -15840664505958558,
            2620926499366760,
            -30215698480606080,
            -10958357155323028,
            -4688432812690735,
            27177062630653380,
            22406378388404848,
            11011117696762084,
            -22699929773807524,
            -31265097856521608,
            -10766555368900300,
            34818962216377260
        ],
        [
            2980741858482361,
            -15875731408596038,
            7662710547447205,
            -7276096940040588,
            -5021300911903381,
            -18359352648258208,
            -3283813595771789,
            7125818729400635,
            15144518017768860,
            6927788257598877,
            33294907212257384,
            -4315930604934692,
            -18247376382350920,
            -3297644853591919,
            13037797808647156,
            -31912487745285036
        ],
        [
            25988277792930604,
            33057710528373720,
            -10676714777946472,
            -35116466879844664,
            31967100501060484,
            27561768889427184,
            25474813580513000,
            -9432676434516906,
            10285887122154236,
            20784774422645568,
            32611325383186340,
            6520664691925049,
            -12032680213451386,
            -17831462621688842,
            -20960436761379240,
            33418092131614684
        ],
        [
            -2365374565124511,
            -1317089796066284,
            -10327047109603882,
            -25396746397018432,
            -16131377220153808,
            -10919463634490966,
            30924054980278016,
            -11215883493423462,
            25947472453117372,
            -13179790973663330,
            -13211654126644134,
            -4492279887199402,
            -20194190740585328,
            10010188817977906,
            28330150246620180,
            8790880441665649
        ],
        [
            17147377133369446,
            10722604393959046,
            -16179247200489044,
            11324208974838256,
            2312749624252319,
            -25880187749862672,
            -21992376446723936,
            5230313539505005,
            5031314492225647,
            -12273508310317994,
            -12759409844875336,
            -28790628910064696,
            20170822739601136,
            -23550966382026672,
            29756507277488708,
            -25045225024223328
        ],
        [
            -7831549644470215,
            -26962822675704956,
            27801904082298280,
            -7317122817039490,
            -3622809052467346,
            20056477189064024,
            4369902610778808,
            487092137336730,
            -15443195402622222,
            -22862666845321656,
            29290625452995300,
            -18293729424476624,
            22618398070335388,
            -29461026191711424,
            -5293533205986023,
            13380545377731324
        ],
        [
            -20100463926792144,
            11620441079139710,
            23668870329856872,
            9405702352523804,
            2228462696075439,
            11265709996223450,
            31867077946662904,
            30250957608222960,
            12893572449684144,
            -19393315911293028,
            -7573941349983215,
            -2505064010620117,
            -4577904939651489,
            -16094624996185302,
            -11346799135208130,
            -29601973295211792
        ],
        [
            -6053012609481812,
            18935880064964296,
            3897672891616821,
            23029038310050964,
            -22352100908756256,
            -5880969762802124,
            5194523930549622,
            -20013312995433808,
            -26282504200935364,
            -31283724308013916,
            -6775242090225220,
            15565297007560730,
            -31230232119560240,
            5681976675987244,
            16073229908943176,
            -22588029503822328
        ],
        [
            -22779427468776704,
            -33567342162132264,
            -18302235007286072,
            834801793098449,
            14559486508369446,
            8061721920967102,
            -1917740702629089,
            17167332768440246,
            -3053918480873108,
            -18477304279804228,
            -11582358181476594,
            25678095221519472,
            -6663981080055237,
            -18447001278400420,
            -19324961304664612,
            26851472258567812
        ],
        [
            15536370873451232,
            21599426865577696,
            -27864444255828856,
            3263068199157715,
            27848830819129944,
            28078702092170716,
            33376613259315492,
            3333503007888794,
            13131549954414368,
            19178256392478944,
            -15830279886722564,
            17273160815238952,
            -12972563505172730,
            34666439890861512,
            -21524538099765776,
            22156354784965516
        ],
        [
            -28141814470291136,
            3792440891265869,
            15403839945793152,
            -23705393075942992,
            -33444350957870484,
            16650745272636414,
            28847417235374452,
            19087323546409608,
            -1118990778923034,
            -22078441083431244,
            -31746160984039308,
            -25262507796287536,
            3280332684516906,
            -27603992819786072,
            -21412596106529236,
            -20385140180587768
        ],
        [
            20484557747840880,
            -18076075613498688,
            -33366328477859496,
            22391703724861144,
            6901386380195618,
            -21895389258861540,
            28550824522972108,
            8777478337287903,
            -4067617654800415,
            21298286318778992,
            29767856001853944,
            15013870596885682,
            -26077392697334288,
            32093879580497740,
            35153582692146300,
            -6660431623458862
        ],
        [
            1925319433212280,
            -13395532965660096,
            3279447555541992,
            15220645070075988,
            -118684768676757,
            -10726903378963470,
            1448175311088562,
            34500607848167420,
            5138906836509705,
            25051161646842956,
            -18741329014301300,
            11150714755058288,
            -4013457894325256,
            25276020169258116,
            13811951875686646,
            -34385952353477480
        ],
        [
            4998439550399780,
            -32568570971488952,
            19304481148719788,
            19114533066749572,
            23072674870491028,
            -20773144066333772,
            431525707244873,
            -3446885943412781,
            10409781336784362,
            5531463027000427,
            32120624184608460,
            21700504422187804,
            19260206818580628,
            22600671648979188,
            4067018628120422,
            11927077174186706
        ],
        [
            -16155476868152618,
            19042906165122984,
            -33181074261665344,
            -9974288940429688,
            2228176593780517,
            11107364296913146,
            -21738998591899872,
            25396695733070372,
            20689734816551208,
            -16769024729728698,
            3570723533630371,
            -3446507453918457,
            25893381237983704,
            35115715861320496,
            -7458549737930298,
            -9142351150512696
        ],
        [
            -6605413556098938,
            16233775019645690,
            -7999092340469360,
            -12416815757751464,
            1975050568580627,
            -30065909028053284,
            4778829216957092,
            17260774970054626,
            34140446782112120,
            34999182820320128,
            2022677659988403,
            -4056692123413086,
            -21063148975372316,
            2079939842224121,
            16307494044303894,
            -7029259204864502
        ],
        [
            -19275507330894472,
            1635482907295227,
            9567150473594666,
            1660567522048950,
            -24974350631237032,
            -17509014904499054,
            8501237630844116,
            -1892486214637756,
            -16001370549201966,
            -30977445840835572,
            32074889540672304,
            18269172310829164,
            3880915045738220,
            24411574006080628,
            13460260629653930,
            -15105481445789338
        ],
        [
            27632847428321840,
            -14029344916343688,
            -357902050018310,
            8326032757759094,
            32655933499336244,
            -25428187847137452,
            2725955843925476,
            -27090233564376832,
            25987198948860168,
            32042041420936584,
            -29554322361946104,
            25381866097450256,
            7588455080986023,
            28241339325904848,
            8400449156761169,
            26896861195564272
        ],
        [
            -31770512461662292,
            12338802218437194,
            -27230405807495116,
            12378090620040894,
            -5883726477622986,
            10080286860466004,
            -15656061470508576,
            11236578226089478,
            -6154340505599976,
            11092391610145568,
            -35087975859642028,
            -1288530230522155,
            33950921893119812,
            -3772133588790893,
            7563680410385132,
            -13720619678497314
        ],
        [
            15996661782264710,
            -14234204590320588,
            -9859251976013184,
            -18652912974357604,
            -32196617126464844,
            5179250240325928,
            -31960520148277284,
            18055817484855652,
            2374115586280823,
            -8095329999923706,
            -13626876473426818,
            1995071768760681,
            31481006741523744,
            32271412014961244,
            6726416945457458,
            4110091924667358
        ]
    ],
    "b2": [
        0,
        0,
        0,
        0,
        0,
        0,
        0,
        0,
        0,
        0,
        0,
        0,
        0,
        0,
        0,
        0
    ],
    "w3": [
        [
            40853214263916016
        ],
        [
            -44339573383331296
        ],
        [
            53791356086730960
        ],
        [
            -37835246324539184
        ],
        [
            -19372144341468812
        ],
        [
            -55634939670562744
        ],
        [
            19936192035675048
        ],
        [
            5423885583877563
        ],
        [
            -3524827957153320
        ],
        [
            54905211925506592
        ],
        [
            -21425184607505800
        ],
        [
            -5728900432586670
        ],
        [
            48059725761413576
        ],
        [
            -2747029066085815
        ],
        [
            -2465116977691650
        ],
        [
            -48318576812744144
        ]
    ],
    "b3": [
        0
    ],
    "x": [
        7.138560117746308e+16,
        2.1309692858628748e+16,
        2.2596606066672476e+16
    ]
}